<?xml version="1.0"?>
<opencv_storage>
<output type_id="opencv-haar-classifier">
  <size>
    25 25</size>
  <stages>
    <_>
      <trees>
        <_>
          <_>
            <feature>
              <rects>
                <_>
                  2 0 5 6 -1.</_>
                <_>
                  2 3 5 3 2.</_></rects>
              <tilted>0</tilted></feature>
            <threshold>-0.0121208401396871</threshold>
            <left_val>0.9282296895980835</left_val>
            <right_val>-0.7578122019767761</right_val></_></_>
        <_>
          <_>
            <feature>
              <rects>
                <_>
                  0 0 20 8 -1.</_>
                <_>
                  0 2 20 4 2.</_></rects>
              <tilted>0</tilted></feature>
            <threshold>-0.0305380392819643</threshold>
            <left_val>1.</left_val>
            <right_val>-0.6618531942367554</right_val></_></_>
        <_>
          <_>
            <feature>
              <rects>
                <_>
                  2 16 6 2 -1.</_>
                <_>
                  2 16 6 1 2.</_></rects>
              <tilted>1</tilted></feature>
            <threshold>-3.7543720100075006e-003</threshold>
            <left_val>0.8449829220771790</left_val>
            <right_val>-0.7793626189231873</right_val></_></_></trees>
      <stage_threshold>-0.5746824741363525</stage_threshold>
      <parent>-1</parent>
      <next>-1</next></_>
    <_>
      <trees>
        <_>
          <_>
            <feature>
              <rects>
                <_>
                  20 19 4 2 -1.</_>
                <_>
                  20 19 2 2 2.</_></rects>
              <tilted>1</tilted></feature>
            <threshold>-9.0645868331193924e-003</threshold>
            <left_val>0.8677443861961365</left_val>
            <right_val>-0.8264513015747070</right_val></_></_>
        <_>
          <_>
            <feature>
              <rects>
                <_>
                  22 19 3 3 -1.</_>
                <_>
                  22 20 3 1 3.</_></rects>
              <tilted>0</tilted></feature>
            <threshold>-4.0081309271045029e-004</threshold>
            <left_val>-0.9179021716117859</left_val>
            <right_val>0.6339207291603088</right_val></_></_></trees>
      <stage_threshold>-0.1925306022167206</stage_threshold>
      <parent>0</parent>
      <next>-1</next></_>
    <_>
      <trees>
        <_>
          <_>
            <feature>
              <rects>
                <_>
                  3 2 4 3 -1.</_>
                <_>
                  3 2 2 3 2.</_></rects>
              <tilted>1</tilted></feature>
            <threshold>9.0821832418441772e-003</threshold>
            <left_val>-0.7307692766189575</left_val>
            <right_val>0.9999986290931702</right_val></_></_>
        <_>
          <_>
            <feature>
              <rects>
                <_>
                  19 0 5 6 -1.</_>
                <_>
                  17 2 5 2 3.</_></rects>
              <tilted>1</tilted></feature>
            <threshold>-0.0317953191697598</threshold>
            <left_val>1.</left_val>
            <right_val>-0.6384019851684570</right_val></_></_></trees>
      <stage_threshold>0.2692306935787201</stage_threshold>
      <parent>1</parent>
      <next>-1</next></_>
    <_>
      <trees>
        <_>
          <_>
            <feature>
              <rects>
                <_>
                  19 19 3 6 -1.</_>
                <_>
                  19 22 3 3 2.</_></rects>
              <tilted>0</tilted></feature>
            <threshold>7.1464218199253082e-003</threshold>
            <left_val>-0.8625277876853943</left_val>
            <right_val>0.8121073246002197</right_val></_></_>
        <_>
          <_>
            <feature>
              <rects>
                <_>
                  9 0 8 6 -1.</_>
                <_>
                  9 2 8 2 3.</_></rects>
              <tilted>0</tilted></feature>
            <threshold>-0.0279393102973700</threshold>
            <left_val>1.</left_val>
            <right_val>-0.6253932714462280</right_val></_></_></trees>
      <stage_threshold>0.1374721974134445</stage_threshold>
      <parent>2</parent>
      <next>-1</next></_>
    <_>
      <trees>
        <_>
          <_>
            <feature>
              <rects>
                <_>
                  0 22 21 3 -1.</_>
                <_>
                  7 23 7 1 9.</_></rects>
              <tilted>0</tilted></feature>
            <threshold>-0.0656618922948837</threshold>
            <left_val>1.</left_val>
            <right_val>-0.6363633871078491</right_val></_></_>
        <_>
          <_>
            <feature>
              <rects>
                <_>
                  21 19 3 6 -1.</_>
                <_>
                  22 21 1 2 9.</_></rects>
              <tilted>0</tilted></feature>
            <threshold>-2.6193191297352314e-004</threshold>
            <left_val>-0.7211024761199951</left_val>
            <right_val>0.8047959804534912</right_val></_></_>
        <_>
          <_>
            <feature>
              <rects>
                <_>
                  1 20 3 3 -1.</_>
                <_>
                  2 21 1 1 9.</_></rects>
              <tilted>0</tilted></feature>
            <threshold>-1.9756921101361513e-003</threshold>
            <left_val>-0.9754207730293274</left_val>
            <right_val>0.6778367161750794</right_val></_></_></trees>
      <stage_threshold>-0.6796292066574097</stage_threshold>
      <parent>3</parent>
      <next>-1</next></_>
    <_>
      <trees>
        <_>
          <_>
            <feature>
              <rects>
                <_>
                  4 22 20 3 -1.</_>
                <_>
                  9 22 10 3 2.</_></rects>
              <tilted>0</tilted></feature>
            <threshold>-0.0313834808766842</threshold>
            <left_val>1.</left_val>
            <right_val>-0.6071426272392273</right_val></_></_>
        <_>
          <_>
            <feature>
              <rects>
                <_>
                  6 1 4 4 -1.</_>
                <_>
                  6 3 4 2 2.</_></rects>
              <tilted>0</tilted></feature>
            <threshold>-0.0116416998207569</threshold>
            <left_val>1.</left_val>
            <right_val>-0.5038847923278809</right_val></_></_>
        <_>
          <_>
            <feature>
              <rects>
                <_>
                  0 13 4 5 -1.</_>
                <_>
                  1 13 2 5 2.</_></rects>
              <tilted>0</tilted></feature>
            <threshold>-4.4812620617449284e-003</threshold>
            <left_val>0.9038478136062622</left_val>
            <right_val>-0.5953410267829895</right_val></_></_></trees>
      <stage_threshold>-0.2071796059608460</stage_threshold>
      <parent>4</parent>
      <next>-1</next></_>
    <_>
      <trees>
        <_>
          <_>
            <feature>
              <rects>
                <_>
                  6 23 6 2 -1.</_>
                <_>
                  6 24 6 1 2.</_></rects>
              <tilted>0</tilted></feature>
            <threshold>2.4261050857603550e-003</threshold>
            <left_val>-0.7427386045455933</left_val>
            <right_val>0.7991058826446533</right_val></_></_>
        <_>
          <_>
            <feature>
              <rects>
                <_>
                  24 16 1 4 -1.</_>
                <_>
                  24 17 1 2 2.</_></rects>
              <tilted>0</tilted></feature>
            <threshold>-2.7343659894540906e-004</threshold>
            <left_val>-0.9262630939483643</left_val>
            <right_val>0.6822193861007690</right_val></_></_></trees>
      <stage_threshold>-0.1271571964025497</stage_threshold>
      <parent>5</parent>
      <next>-1</next></_>
    <_>
      <trees>
        <_>
          <_>
            <feature>
              <rects>
                <_>
                  7 12 11 8 -1.</_>
                <_>
                  7 16 11 4 2.</_></rects>
              <tilted>0</tilted></feature>
            <threshold>0.0162461306899786</threshold>
            <left_val>-0.6071428060531616</left_val>
            <right_val>0.9999982714653015</right_val></_></_>
        <_>
          <_>
            <feature>
              <rects>
                <_>
                  6 20 2 2 -1.</_>
                <_>
                  6 20 2 1 2.</_></rects>
              <tilted>1</tilted></feature>
            <threshold>-3.5740770399570465e-003</threshold>
            <left_val>0.8885897994041443</left_val>
            <right_val>-0.5920621156692505</right_val></_></_>
        <_>
          <_>
            <feature>
              <rects>
                <_>
                  20 13 4 4 -1.</_>
                <_>
                  20 13 2 4 2.</_></rects>
              <tilted>1</tilted></feature>
            <threshold>0.0101092699915171</threshold>
            <left_val>-0.6064404249191284</left_val>
            <right_val>0.9063599705696106</right_val></_></_></trees>
      <stage_threshold>-0.3249934017658234</stage_threshold>
      <parent>6</parent>
      <next>-1</next></_>
    <_>
      <trees>
        <_>
          <_>
            <feature>
              <rects>
                <_>
                  21 18 4 6 -1.</_>
                <_>
                  21 20 4 2 3.</_></rects>
              <tilted>0</tilted></feature>
            <threshold>-4.6246830606833100e-004</threshold>
            <left_val>-0.7427387237548828</left_val>
            <right_val>0.7991064190864563</right_val></_></_>
        <_>
          <_>
            <feature>
              <rects>
                <_>
                  1 0 18 6 -1.</_>
                <_>
                  7 2 6 2 9.</_></rects>
              <tilted>0</tilted></feature>
            <threshold>-0.0676230266690254</threshold>
            <left_val>0.8024153113365173</left_val>
            <right_val>-0.6829518079757690</right_val></_></_></trees>
      <stage_threshold>0.0596765913069248</stage_threshold>
      <parent>7</parent>
      <next>-1</next></_>
    <_>
      <trees>
        <_>
          <_>
            <feature>
              <rects>
                <_>
                  1 10 4 14 -1.</_>
                <_>
                  1 10 2 7 2.</_>
                <_>
                  3 17 2 7 2.</_></rects>
              <tilted>0</tilted></feature>
            <threshold>-7.3477379046380520e-003</threshold>
            <left_val>0.9224807024002075</left_val>
            <right_val>-0.6574578881263733</right_val></_></_>
        <_>
          <_>
            <feature>
              <rects>
                <_>
                  19 0 1 12 -1.</_>
                <_>
                  19 3 1 6 2.</_></rects>
              <tilted>0</tilted></feature>
            <threshold>-5.6058689951896667e-003</threshold>
            <left_val>0.8412510156631470</left_val>
            <right_val>-0.6261932253837585</right_val></_></_>
        <_>
          <_>
            <feature>
              <rects>
                <_>
                  4 13 4 3 -1.</_>
                <_>
                  3 14 4 1 3.</_></rects>
              <tilted>1</tilted></feature>
            <threshold>3.1718309037387371e-003</threshold>
            <left_val>-0.5406528115272522</left_val>
            <right_val>1.0000009536743164</right_val></_></_></trees>
      <stage_threshold>-0.3568597137928009</stage_threshold>
      <parent>8</parent>
      <next>-1</next></_>
    <_>
      <trees>
        <_>
          <_>
            <feature>
              <rects>
                <_>
                  5 3 10 9 -1.</_>
                <_>
                  5 6 10 3 3.</_></rects>
              <tilted>0</tilted></feature>
            <threshold>9.8387934267520905e-003</threshold>
            <left_val>-0.7061612010002136</left_val>
            <right_val>0.7943633794784546</right_val></_></_>
        <_>
          <_>
            <feature>
              <rects>
                <_>
                  20 24 4 1 -1.</_>
                <_>
                  22 24 2 1 2.</_></rects>
              <tilted>0</tilted></feature>
            <threshold>-1.3412940315902233e-003</threshold>
            <left_val>-1.</left_val>
            <right_val>0.6280130147933960</right_val></_></_></trees>
      <stage_threshold>-0.0781482532620430</stage_threshold>
      <parent>9</parent>
      <next>-1</next></_>
    <_>
      <trees>
        <_>
          <_>
            <feature>
              <rects>
                <_>
                  21 23 2 2 -1.</_>
                <_>
                  22 23 1 2 2.</_></rects>
              <tilted>0</tilted></feature>
            <threshold>2.2609220468439162e-004</threshold>
            <left_val>0.6564884185791016</left_val>
            <right_val>-0.8472902178764343</right_val></_></_>
        <_>
          <_>
            <feature>
              <rects>
                <_>
                  2 1 2 2 -1.</_>
                <_>
                  2 1 1 2 2.</_></rects>
              <tilted>1</tilted></feature>
            <threshold>-1.2131759431213140e-003</threshold>
            <left_val>-0.9601342082023621</left_val>
            <right_val>0.6101617813110352</right_val></_></_>
        <_>
          <_>
            <feature>
              <rects>
                <_>
                  23 17 2 1 -1.</_>
                <_>
                  23 17 1 1 2.</_></rects>
              <tilted>1</tilted></feature>
            <threshold>-3.2734679989516735e-003</threshold>
            <left_val>1.</left_val>
            <right_val>-0.6820501089096069</right_val></_></_></trees>
      <stage_threshold>0.5846000909805298</stage_threshold>
      <parent>10</parent>
      <next>-1</next></_></stages></output>
</opencv_storage>
